{"dates": ["2026-01-01", "2026-01-02", "2026-01-03", "2026-01-04", "2026-01-05", "2026-01-06", "2026-01-07", "2026-01-08", "2026-01-09", "2026-01-10", "2026-01-11", "2026-01-12", "2026-01-13", "2026-01-14", "2026-01-15", "2026-01-16", "2026-01-17", "2026-01-18", "2026-01-19", "2026-01-20", "2026-01-21", "2026-01-22", "2026-01-23", "2026-01-24", "2026-01-25", "2026-01-26", "2026-01-27", "2026-01-28", "2026-01-29", "2026-01-30", "2026-01-31", "2026-02-01", "2026-02-02", "2026-02-03", "2026-02-04", "2026-02-05", "2026-02-06", "2026-02-07", "2026-02-08"], "sdelp_values": [0.9986603841744148, 0.9806640755044009, 0.9842887689940799, 0.9773981409560761, 0.9772410516454775, 0.9738768306812235, 1.0022521230135042, 1.0194060619844705, 1.0189404746707253, 1.023645827582666, 1.026010984525841, 1.025377801436742, 1.0085486762024054, 1.0077698669581228, 1.0191032570382061, 1.0294969064430934, 1.0235024816077996, 1.0239171472034219, 1.0249841090704968, 1.0249863441608031, 1.0249114971767082, 1.023552913757171, 1.0256331469999536, 1.0260302351876613, 1.0238337290544282, 1.0270088978761842, 1.0139669070526895, 1.050349713080972, 1.0595828930420865, 1.0747082210519603, 1.104168277286214, 1.1060122522571656, 1.1056443307497341, 1.1012890460045273, 1.0977644645971059, 1.1137466657610942, 1.174672850253484, 1.1658330261130352, 1.1634327941358331], "bah_values": [1.0469881163943389, 1.102902764663979, 1.1190559697886096, 1.1383374163368682, 1.1722729582644074, 1.1832951532293194, 1.1362218169743536, 1.1212099466768362, 1.1151912360773197, 1.1093028436300827, 1.1160032051111288, 1.1050274251630587, 1.192147593863788, 1.184890383036428, 1.1441525855629324, 1.1418159010024944, 1.140520882623532, 1.0938712981235443, 1.0708742199821164, 1.006438001522676, 1.026004623502999, 1.0171851139629529, 1.0145914426329121, 1.0134389038307448, 0.9652891978796141, 0.9949609041962927, 1.016642959870906, 1.0551590773747943, 0.9678074678262694, 0.9493104371194871, 0.8592001260772087, 0.8276155371602592, 0.8552781744643038, 0.8279771111981249, 0.8046429972702681, 0.6840837636950527, 0.7716552655431124, 0.766332901249945, 0.7585423932512434], "sdelp_metrics": {"CRR": 1.165, "Annualized Return": 1.6826, "Annualized Volatility": 0.2193, "Sharpe Ratio": 7.6713, "Sortino Ratio": 19.4682, "MDD": -0.0248}, "bah_metrics": {"CRR": 0.7245, "Annualized Return": -0.8754, "Annualized Volatility": 0.7396, "Sharpe Ratio": -1.1836, "Sortino Ratio": -1.5886, "MDD": -0.4262}, "current_weights": [0.16665456236410864, -0.16590491655344639, 0.16646133834961718, 0.1723756887373849, -0.16465857018371838, 0.16394492381172457], "weight_labels": ["BTC", "DOGE", "ETH", "NEAR", "SOL", "WLD"], "weight_dates": ["2026-01-01", "2026-01-02", "2026-01-03", "2026-01-04", "2026-01-05", "2026-01-06", "2026-01-07", "2026-01-08", "2026-01-09", "2026-01-10", "2026-01-11", "2026-01-12", "2026-01-13", "2026-01-14", "2026-01-15", "2026-01-16", "2026-01-17", "2026-01-18", "2026-01-19", "2026-01-20", "2026-01-21", "2026-01-22", "2026-01-23", "2026-01-24", "2026-01-25", "2026-01-26", "2026-01-27", "2026-01-28", "2026-01-29", "2026-01-30", "2026-01-31", "2026-02-01", "2026-02-02", "2026-02-03", "2026-02-04", "2026-02-05", "2026-02-06", "2026-02-07", "2026-02-08"], "weights_sampled": [[-0.15355703404048426, -0.17714875446338607, 0.16352542054074806, -0.16359978622567023, -0.16670043737379198, 0.17546856735591948], [-0.15355703404048426, -0.17714875446338607, 0.16352542054074806, -0.16359978622567023, -0.16670043737379198, 0.17546856735591948], [-0.15355703404048426, -0.17714875446338607, 0.16352542054074806, -0.16359978622567023, -0.16670043737379198, 0.17546856735591948], [-0.15355703404048426, -0.17714875446338607, 0.16352542054074806, -0.16359978622567023, -0.16670043737379198, 0.17546856735591948], [-0.15355703404048426, -0.17714875446338607, 0.16352542054074806, -0.16359978622567023, -0.16670043737379198, 0.17546856735591948], [-0.15294971388680426, -0.17451919621733644, -0.16252868586444447, -0.16743261727531078, 0.1652608080883198, -0.17730897866778422], [-0.15294971388680426, -0.17451919621733644, -0.16252868586444447, -0.16743261727531078, 0.1652608080883198, -0.17730897866778422], [-0.15294971388680426, -0.17451919621733644, -0.16252868586444447, -0.16743261727531078, 0.1652608080883198, -0.17730897866778422], [-0.15294971388680426, -0.17451919621733644, -0.16252868586444447, -0.16743261727531078, 0.1652608080883198, -0.17730897866778422], [-0.15294971388680426, -0.17451919621733644, -0.16252868586444447, -0.16743261727531078, 0.1652608080883198, -0.17730897866778422], [-0.1583354964004675, -0.1698060913490377, 0.16705633677868442, -0.16577550335389707, -0.16778135288008128, 0.17124521923783187], [-0.1583354964004675, -0.1698060913490377, 0.16705633677868442, -0.16577550335389707, -0.16778135288008128, 0.17124521923783187], [-0.1583354964004675, -0.1698060913490377, 0.16705633677868442, -0.16577550335389707, -0.16778135288008128, 0.17124521923783187], [-0.1583354964004675, -0.1698060913490377, 0.16705633677868442, -0.16577550335389707, -0.16778135288008128, 0.17124521923783187], [-0.1583354964004675, -0.1698060913490377, 0.16705633677868442, -0.16577550335389707, -0.16778135288008128, 0.17124521923783187], [0.16028404687248884, -0.16955376260894908, -0.167188932752598, -0.16597643003311366, 0.1659517913566936, 0.1710450363761569], [0.16028404687248884, -0.16955376260894908, -0.167188932752598, -0.16597643003311366, 0.1659517913566936, 0.1710450363761569], [0.16028404687248884, -0.16955376260894908, -0.167188932752598, -0.16597643003311366, 0.1659517913566936, 0.1710450363761569], [0.16028404687248884, -0.16955376260894908, -0.167188932752598, -0.16597643003311366, 0.1659517913566936, 0.1710450363761569], [0.16028404687248884, -0.16955376260894908, -0.167188932752598, -0.16597643003311366, 0.1659517913566936, 0.1710450363761569], [0.1403308761536774, 0.14610803146730814, 0.14342118326350042, -0.21321789031449379, -0.20764477528491262, 0.1492772435161077], [0.1403308761536774, 0.14610803146730814, 0.14342118326350042, -0.21321789031449379, -0.20764477528491262, 0.1492772435161077], [0.1403308761536774, 0.14610803146730814, 0.14342118326350042, -0.21321789031449379, -0.20764477528491262, 0.1492772435161077], [0.1403308761536774, 0.14610803146730814, 0.14342118326350042, -0.21321789031449379, -0.20764477528491262, 0.1492772435161077], [0.1403308761536774, 0.14610803146730814, 0.14342118326350042, -0.21321789031449379, -0.20764477528491262, 0.1492772435161077], [-0.18138723199537127, -0.185278858428231, -0.1813436059156707, -0.19020462054465465, 0.12870641982734707, 0.13307926328872535], [-0.18138723199537127, -0.185278858428231, -0.1813436059156707, -0.19020462054465465, 0.12870641982734707, 0.13307926328872535], [-0.18138723199537127, -0.185278858428231, -0.1813436059156707, -0.19020462054465465, 0.12870641982734707, 0.13307926328872535], [-0.18138723199537127, -0.185278858428231, -0.1813436059156707, -0.19020462054465465, 0.12870641982734707, 0.13307926328872535], [-0.18138723199537127, -0.185278858428231, -0.1813436059156707, -0.19020462054465465, 0.12870641982734707, 0.13307926328872535], [0.14729652891780198, 0.14686165750371724, 0.14490399632901438, 0.15188732450024434, -0.2082415513871526, -0.20080894136206942], [0.14729652891780198, 0.14686165750371724, 0.14490399632901438, 0.15188732450024434, -0.2082415513871526, -0.20080894136206942], [0.14729652891780198, 0.14686165750371724, 0.14490399632901438, 0.15188732450024434, -0.2082415513871526, -0.20080894136206942], [0.14729652891780198, 0.14686165750371724, 0.14490399632901438, 0.15188732450024434, -0.2082415513871526, -0.20080894136206942], [0.14729652891780198, 0.14686165750371724, 0.14490399632901438, 0.15188732450024434, -0.2082415513871526, -0.20080894136206942], [0.16665456236410864, -0.16590491655344639, 0.16646133834961718, 0.1723756887373849, -0.16465857018371838, 0.16394492381172457], [0.16665456236410864, -0.16590491655344639, 0.16646133834961718, 0.1723756887373849, -0.16465857018371838, 0.16394492381172457], [0.16665456236410864, -0.16590491655344639, 0.16646133834961718, 0.1723756887373849, -0.16465857018371838, 0.16394492381172457], [0.16665456236410864, -0.16590491655344639, 0.16646133834961718, 0.1723756887373849, -0.16465857018371838, 0.16394492381172457]], "daily_returns": [-0.018020449148877904, 0.003696162202958986, -0.00700061633848148, -0.00016072192489025028, -0.0034425702426124083, 0.029136428178943463, 0.017115393000504575, -0.00045672409759733856, 0.004617887922708341, 0.002310522721281627, -0.0006171309066359543, -0.016412609294599534, -0.0007722078890779471, 0.011246010077967883, 0.010198818748841987, -0.00582267396606817, 0.00040514371295996554, 0.0010420392606853568, 2.1806097154630777e-06, -7.302242075846177e-05, -0.0013255616931603376, 0.0020323651223330685, 0.00038716395708271456, -0.002140781097772826, 0.003101254365480255, -0.012699004702359407, 0.03588165035290625, 0.00879057693463925, 0.014274794458457807, 0.02741214374020262, 0.0016700126320270403, -0.0003326559056471279, -0.003939137228925693, -0.003200414478114144, 0.014558861831853953, 0.05470380865360891, -0.007525349835523332, -0.0020588128174792164], "daily_return_dates": ["2026-01-02", "2026-01-03", "2026-01-04", "2026-01-05", "2026-01-06", "2026-01-07", "2026-01-08", "2026-01-09", "2026-01-10", "2026-01-11", "2026-01-12", "2026-01-13", "2026-01-14", "2026-01-15", "2026-01-16", "2026-01-17", "2026-01-18", "2026-01-19", "2026-01-20", "2026-01-21", "2026-01-22", "2026-01-23", "2026-01-24", "2026-01-25", "2026-01-26", "2026-01-27", "2026-01-28", "2026-01-29", "2026-01-30", "2026-01-31", "2026-02-01", "2026-02-02", "2026-02-03", "2026-02-04", "2026-02-05", "2026-02-06", "2026-02-07", "2026-02-08"], "tickers": ["BTC", "DOGE", "ETH", "NEAR", "SOL", "WLD"], "test_start": "2026-01-01", "test_end": "2026-02-08", "regimes": ["neutral", "neutral", "neutral", "neutral", "neutral", "overbought", "overbought", "overbought", "overbought", "overbought", "reversal_warning_down", "reversal_warning_down", "reversal_warning_down", "reversal_warning_down", "reversal_warning_down", "reversal_warning_up", "reversal_warning_up", "reversal_warning_up", "reversal_warning_up", "reversal_warning_up", "reversal_warning_down", "reversal_warning_down", "reversal_warning_down", "reversal_warning_down", "reversal_warning_down", "oversold", "oversold", "oversold", "oversold", "oversold", "oversold", "oversold", "oversold", "oversold", "oversold", "oversold", "oversold", "oversold", "oversold"], "confidences": [0.5833333730697632, 0.5833333730697632, 0.5833333730697632, 0.5833333730697632, 0.5833333730697632, 0.6166666746139526, 0.6166666746139526, 0.6166666746139526, 0.6166666746139526, 0.6166666746139526, 0.5833333730697632, 0.5833333730697632, 0.5833333730697632, 0.5833333730697632, 0.5833333730697632, 0.25, 0.25, 0.25, 0.25, 0.25, 0.20000000298023224, 0.20000000298023224, 0.20000000298023224, 0.20000000298023224, 0.20000000298023224, 0.3333333730697632, 0.3333333730697632, 0.3333333730697632, 0.3333333730697632, 0.3333333730697632, 0.3333333730697632, 0.3333333730697632, 0.3333333730697632, 0.3333333730697632, 0.3333333730697632, 0.5833333730697632, 0.5833333730697632, 0.5833333730697632, 0.5833333730697632], "drawdowns": [0.0, 0.0, 0.0, 0.0, 0.0, 0.025130886501094938, 0.025130886501094938, 0.025130886501094938, 0.025130886501094938, 0.025130886501094938, 0.0, 0.0, 0.0, 0.0, 0.0, 0.013148278643042667, 0.013148278643042667, 0.013148278643042667, 0.013148278643042667, 0.013148278643042667, 0.0010057189702303948, 0.0010057189702303948, 0.0010057189702303948, 0.0010057189702303948, 0.0010057189702303948, 0.0, 0.0, 0.0, 0.0, 0.0, 0.0, 0.0, 0.0, 0.0, 0.0, 0.033172693977487885, 0.033172693977487885, 0.033172693977487885, 0.033172693977487885], "defensive_modes": [false, false, false, false, false, false, false, false, false, false, false, false, false, false, false, false, false, false, false, false, false, false, false, false, false, false, false, false, false, false, false, false, false, false, false, false, false, false, false]}